{"ext_c": {"model": {"weights": [{"dtype": "float32", "data": [[-0.5508277416229248, 0.22335994243621826, -2.0638883113861084, -1.6179132461547852, -2.4058644771575928, 0.4429870545864105, -8.443748474121094, -3.7175705432891846, -3.396780490875244, -2.1444361209869385, 0.15988804399967194, -0.9776540398597717, -1.2616701126098633, -0.27457407116889954, -1.7002248764038086, -2.30472993850708, -2.594356060028076, 0.6157752871513367, 1.104405403137207, -0.7923399806022644, -0.3885916769504547, 3.58415150642395], [-0.06253453344106674, 1.8608440160751343, -0.07021763920783997, 0.133103147149086, 5.284999370574951, 0.4249451756477356, -2.583301067352295, -0.8164920806884766, -1.0925058126449585, -0.061733461916446686, 0.12996380031108856, -2.7293031215667725, 0.7614930272102356, -0.32440176606178284, -10.861964225769043, 1.7731252908706665, 6.213744163513184, -0.4824730157852173, -0.24938271939754486, -0.7954133749008179, 0.02849385142326355, -0.3045501410961151], [-3.059644937515259, 3.2269673347473145, -5.687522888183594, -1.616182804107666, -2.7120518684387207, 1.1310113668441772, -0.911069929599762, 5.31080436706543, -0.13719700276851654, 0.9496517181396484, -5.920710563659668, 1.482582449913025, -0.6102468967437744, -0.1755204200744629, 0.06722985953092575, 2.174856185913086, -0.3569614291191101, 7.065904140472412, -1.9113353490829468, 0.4831565320491791, 0.21313592791557312, 0.5905225872993469], [0.7081929445266724, 5.351900100708008, 4.854133129119873, -8.198224067687988, -7.214807033538818, -9.504837036132812, -0.9038175940513611, 3.542548656463623, 1.3793394565582275, 1.620229721069336, 0.5233032703399658, 3.4840385913848877, -1.2253516912460327, 0.0668698325753212, 0.11135444045066833, -2.270177125930786, -0.04311478137969971, 2.4042935371398926, -11.363960266113281, -3.903475522994995, -0.09383472800254822, 0.4858493506908417], [3.095440626144409, 0.4933916926383972, 0.04424486681818962, -3.685359001159668, 0.05069027468562126, -0.14737729728221893, 1.5886878967285156, -1.7262260913848877, -1.2224900722503662, -1.6213411092758179, 1.0870559215545654, 2.380540609359741, 0.2209540158510208, 0.24123524129390717, 0.3941754996776581, -0.14325524866580963, -0.827541172504425, -1.549748182296753, -0.16360296308994293, 0.16943612694740295, -0.33226853609085083, -3.3483409881591797], [3.1205756664276123, 0.3668672740459442, -0.9697489738464355, -4.031674861907959, 1.1263774633407593, 1.1752969026565552, -0.1285778433084488, -3.2055864334106445, -2.7163219451904297, -7.21433162689209, -6.067689418792725, -7.314767837524414, -3.070181131362915, -0.8485729694366455, 0.5303118228912354, -2.0678486824035645, -0.12988366186618805, 0.432677298784256, -0.12837232649326324, 0.3022329807281494, -0.7649108171463013, 4.040163516998291], [-1.8197362422943115, 0.6378833055496216, 0.5554783940315247, 1.2851721048355103, 0.2348247766494751, -0.41603803634643555, 0.2786925733089447, -1.0114909410476685, -2.28129243850708, -0.2585727274417877, 1.3583984375, 0.44976356625556946, 4.598989486694336, 0.9572006464004517, -0.04521836340427399, -4.919702053070068, 0.34190693497657776, -0.3314770758152008, 1.7488418817520142, -0.6030802726745605, 7.439741134643555, -1.2500914335250854], [1.9230552911758423, 3.00093936920166, -0.5065796971321106, -1.4904351234436035, -1.3813905715942383, 1.032116413116455, 0.28676295280456543, 0.4688108265399933, 4.889078617095947, 0.6042550802230835, -1.898540735244751, -0.20923581719398499, -4.296595096588135, 9.0097074508667, -0.26970356702804565, -2.771617889404297, -0.6080042719841003, -0.3774678707122803, -2.0889129638671875, 4.728811264038086, 9.616805076599121, 1.2134568691253662], [-0.06579495966434479, -0.08135810494422913, -0.016947997733950615, -0.039611976593732834, 0.17001108825206757, 0.027122467756271362, -0.021944088861346245, -0.05243893340229988, -0.05795903131365776, -0.002685110317543149, -0.04640393704175949, 0.0897601842880249, 0.024966327473521233, -0.07698692381381989, 0.03841886669397354, -0.11938128620386124, 0.061378113925457, 0.032768454402685165, 0.09903600811958313, -0.00449629221111536, 0.018966790288686752, 0.028558816760778427], [0.04152391850948334, 0.026309002190828323, 0.036677777767181396, -0.08042832463979721, 0.08593191206455231, 0.003399825654923916, 0.009070990607142448, -0.09454773366451263, 0.014942057430744171, 0.01288878358900547, 0.024022389203310013, -0.05476510152220726, 0.0356692336499691, -0.012652477249503136, 0.056588344275951385, -0.08801417797803879, 0.07896073907613754, 0.024020662531256676, 0.03524182364344597, 0.015734080225229263, 0.011785066686570644, 0.044556718319654465], [0.018307024613022804, -0.0211544968187809, 0.021485691890120506, -0.015883848071098328, 0.04695652797818184, 0.018437083810567856, 0.010264288634061813, -0.023632928729057312, 0.033952776342630386, 0.03385625034570694, -0.004693584982305765, -0.025809239596128464, -0.029264509677886963, 0.03590092435479164, 0.02101316675543785, -0.03889072686433792, -0.030345819890499115, -0.06882313638925552, 0.05204431340098381, 0.03903994709253311, -0.0034138455521315336, 0.023542609065771103], [-0.061555907130241394, -0.038259200751781464, -0.013753999024629593, 0.02506982535123825, 0.043395139276981354, -0.022990629076957703, -0.036524511873722076, 0.006417771335691214, 0.0009904245380312204, 0.020603682845830917, 0.0075129857286810875, -0.01342979446053505, -0.04088335484266281, 0.011872507631778717, 0.018795020878314972, 0.017549170181155205, -0.027588555589318275, 0.0667465552687645, -0.035237010568380356, 0.04604334756731987, -0.032524142414331436, -0.0047847311943769455], [-0.08822242170572281, -0.04159896448254585, -0.01881670393049717, 0.08003740012645721, -0.004156198818236589, 0.015516817569732666, 0.056800149381160736, -0.041271161288022995, 0.019781343638896942, -0.01502533070743084, -0.03642543777823448, 0.04405876621603966, -0.012387753464281559, 0.0075882733799517155, 0.0195448100566864, 0.07729674130678177, -0.03200448676943779, 0.003570713335648179, 0.007183651439845562, -0.004424914717674255, 0.03980426862835884, 0.00030628329841420054]], "@module": "numpy", "@class": "array"}, {"dtype": "float32", "data": [0.6007624864578247, -3.018552541732788, -4.108214855194092, -5.728850841522217, -3.7756619453430176, -6.635321140289307, -1.5217294692993164, 2.7484042644500732, -8.260175704956055, 4.6149067878723145, 0.18953564763069153, -7.9311089515686035, -2.880096197128296, -3.586031436920166, -9.71131706237793, -5.029322624206543, -6.298310279846191, -9.523123741149902, -8.6803617477417, 3.1709439754486084, -6.0206780433654785, -9.711981773376465], "@module": "numpy", "@class": "array"}, {"dtype": "float32", "data": [[0.512725293636322, -0.054737769067287445, -0.06665313243865967, -0.06044003739953041, -0.024772532284259796, -0.032809894531965256, 0.05032886192202568, 0.04962076619267464], [-0.9265921711921692, -0.05646667629480362, 0.03334391489624977, 0.040954336524009705, -0.019424494355916977, 0.011143896728754044, 0.08719465136528015, 0.06957311183214188], [0.7812567949295044, 0.05895429849624634, -0.007500736508518457, 0.06418616324663162, -0.04843206703662872, -0.010896001011133194, -0.019716735929250717, -0.03169926255941391], [0.7361953854560852, 0.002989515196532011, -0.12292208522558212, -0.012520970776677132, -0.06328754127025604, 0.0882125124335289, 0.03277714177966118, -0.10177285969257355], [-0.7018890380859375, -0.08046042919158936, 0.029018225148320198, -0.12462962418794632, 0.09258102625608444, -0.03379260376095772, -0.16215793788433075, 0.06978045403957367], [-1.2099969387054443, -0.044396430253982544, -0.012312677688896656, 0.05708785355091095, -0.07038173824548721, 0.1152612566947937, -0.06405255198478699, 0.02903791330754757], [0.7496592402458191, 0.026459649205207825, 0.04678039997816086, -0.05081072822213173, 0.02518315240740776, 0.01751600205898285, -0.007359095383435488, -0.015017468482255936], [0.862431526184082, 7.350416854023933e-05, 0.021085688844323158, 0.030582839623093605, -0.019172748550772667, -0.035337917506694794, 0.08194438368082047, -0.024845870211720467], [-1.1554853916168213, -0.014372430741786957, -0.05063708499073982, 0.07645715028047562, 0.08721496909856796, -0.06026696786284447, 0.12896838784217834, -0.10391853749752045], [-1.079375982284546, -0.07185186445713043, 0.03803716599941254, 0.024037986993789673, -0.020419778302311897, -0.0038193848449736834, -0.12592457234859467, 0.09980487078428268], [1.1143652200698853, -0.0353945791721344, -0.013051261194050312, -0.049682293087244034, -0.010311346501111984, 0.016333337873220444, -0.053444426506757736, 0.02422705665230751], [0.7675818800926208, -0.14889802038669586, 0.040944188833236694, 0.0949653759598732, -0.14626668393611908, 0.1590205579996109, 0.09729138016700745, -0.1119307354092598], [-0.8900823593139648, -0.01896725222468376, 0.006101987324655056, 0.059044938534498215, -0.06738203763961792, 0.013555958867073059, 0.12647467851638794, -0.016284257173538208], [-1.1831581592559814, 0.026242438703775406, 0.017749210819602013, 0.041487205773591995, -0.053675975650548935, -0.013687103986740112, 0.009113791398704052, -0.0420546755194664], [-4.918898105621338, 0.26434871554374695, 0.13604101538658142, -0.17975445091724396, -0.15761280059814453, 0.226077139377594, -0.2821027934551239, -0.29558300971984863], [0.6496632099151611, 0.2357909232378006, -0.09457162767648697, 0.08827971667051315, 0.08842576295137405, -0.13985103368759155, 0.06558157503604889, -0.09864175319671631], [0.9885545969009399, -0.024128617718815804, -0.034966614097356796, 0.06339679658412933, 0.062338076531887054, -0.0668710395693779, 0.0986299216747284, -0.08881055563688278], [1.2738523483276367, 0.0762435644865036, -0.09624487906694412, 0.05365292355418205, -0.10692409425973892, -0.003504751017317176, -0.06578106433153152, 0.006335937883704901], [-2.331267833709717, 0.035472676157951355, -0.02571214735507965, -0.0375242680311203, -0.2551656663417816, 0.12340575456619263, -0.32198217511177063, 0.19069857895374298], [-0.8273526430130005, 0.02542708069086075, 0.02181934006512165, -0.04862396791577339, 0.012260993011295795, 0.02282831259071827, -0.015139181166887283, 0.012539282441139221], [1.9731169939041138, 0.005100132431834936, 0.000904962420463562, 0.041243135929107666, -0.005880244076251984, -0.0966539978981018, 0.07504553347826004, -0.013647282496094704], [0.8313403129577637, 0.0046309176832437515, -0.022209037095308304, -0.1712321639060974, 0.11551713943481445, 0.044809915125370026, 0.07023109495639801, -0.09620646387338638]], "@module": "numpy", "@class": "array"}, {"dtype": "float32", "data": [0.8117839097976685, -0.15918883681297302, -0.029311073943972588, 0.13892289996147156, 0.007121289148926735, 0.26841306686401367, 0.062711201608181, -0.02245103009045124], "@module": "numpy", "@class": "array"}, {"dtype": "float32", "data": [[0.17558711767196655], [-0.017513081431388855], [0.008837856352329254], [0.0010162314865738153], [-0.005653521046042442], [-0.0049114348366856575], [-0.010583750903606415], [0.008780278265476227]], "@module": "numpy", "@class": "array"}, {"dtype": "float32", "data": [-0.9077073931694031], "@module": "numpy", "@class": "array"}], "parameters": "{\"keras_version\": \"2.0.6\", \"backend\": \"tensorflow\", \"class_name\": \"Sequential\", \"config\": [{\"class_name\": \"Dense\", \"config\": {\"trainable\": true, \"batch_input_shape\": [null, 13], \"name\": \"dense_136\", \"activity_regularizer\": null, \"use_bias\": true, \"bias_constraint\": null, \"kernel_initializer\": {\"class_name\": \"VarianceScaling\", \"config\": {\"scale\": 1.0, \"distribution\": \"uniform\", \"mode\": \"fan_avg\", \"seed\": null}}, \"activation\": \"relu\", \"kernel_constraint\": null, \"units\": 22, \"dtype\": \"float32\", \"kernel_regularizer\": null, \"bias_regularizer\": null, \"bias_initializer\": {\"class_name\": \"Zeros\", \"config\": {}}}}, {\"class_name\": \"Dense\", \"config\": {\"trainable\": true, \"activity_regularizer\": null, \"name\": \"dense_137\", \"use_bias\": true, \"bias_constraint\": null, \"kernel_initializer\": {\"class_name\": \"VarianceScaling\", \"config\": {\"scale\": 1.0, \"distribution\": \"uniform\", \"mode\": \"fan_avg\", \"seed\": null}}, \"activation\": \"linear\", \"kernel_constraint\": null, \"kernel_regularizer\": null, \"units\": 8, \"bias_regularizer\": null, \"bias_initializer\": {\"class_name\": \"Zeros\", \"config\": {}}}}, {\"class_name\": \"Dense\", \"config\": {\"trainable\": true, \"activity_regularizer\": null, \"name\": \"dense_138\", \"use_bias\": true, \"bias_constraint\": null, \"kernel_initializer\": {\"class_name\": \"VarianceScaling\", \"config\": {\"scale\": 1.0, \"distribution\": \"uniform\", \"mode\": \"fan_avg\", \"seed\": null}}, \"activation\": \"linear\", \"kernel_constraint\": null, \"kernel_regularizer\": null, \"units\": 1, \"bias_regularizer\": null, \"bias_initializer\": {\"class_name\": \"Zeros\", \"config\": {}}}}]}"}, "scaler": "{\"mod\": \"sklearn.preprocessing.data\", \"attr\": {\"with_mean\": true, \"copy\": true, \"var_\": {\"py/numpy.ndarray\": {\"dtype\": \"float64\", \"values\": [0.01899586951645474, 0.06458515391793149, 0.03236206588037931, 0.09356293211446826, 0.016064058718224604, 0.11535449707532433, 0.00839821703381455, 0.045826893186747826, 0.1599999999999633, 0.2399999999999147, 0.2399999999999245, 0.25, 0.25]}}, \"n_samples_seen_\": 23940, \"scale_\": {\"py/numpy.ndarray\": {\"dtype\": \"float64\", \"values\": [0.1378255038679516, 0.25413609330028564, 0.17989459658472043, 0.30588058472951213, 0.12674406778316927, 0.33963877439910234, 0.09164178650492662, 0.2140721681740712, 0.3999999999999541, 0.48989794855654856, 0.48989794855655855, 0.5, 0.5]}}, \"mean_\": {\"py/numpy.ndarray\": {\"dtype\": \"float64\", \"values\": [1.0915346700084005, 1.2166081871345844, 1.0998838763575867, 1.2324644945698122, 0.8747142857142761, 1.5370008354219402, 0.6934210526316498, 1.7759732664997532, 0.2, 0.4, 0.4, 0.5, 0.5]}}, \"with_std\": true}, \"name\": \"StandardScaler\"}"}, "ext_d": {"model": {"weights": [{"dtype": "float32", "data": [[-0.4080045223236084, 5.423219203948975, -0.1293957382440567, 1.2270663976669312, -2.280139923095703, 0.2932186424732208, 1.5284392833709717, 0.4036596715450287, 0.188725084066391, -1.807425618171692, 2.083609104156494, -1.5537230968475342, -2.758348226547241, 1.7664090394973755, 2.8407487869262695, -0.2860057055950165, 1.1956218481063843, 1.7804317474365234, -5.213335990905762, 4.146032810211182, -3.694737672805786, 0.21011380851268768], [5.050683498382568, -1.0509145259857178, -4.150999546051025, 1.5418779850006104, 0.036986131221055984, -5.885133743286133, -2.3956189155578613, 4.916475296020508, -2.1836342811584473, 4.449373245239258, 6.733974456787109, 1.3179445266723633, 2.8009965419769287, 5.931642532348633, 0.3266357481479645, 2.8618733882904053, 7.804104328155518, -2.439269781112671, -1.6874626874923706, 5.11458683013916, -4.371810436248779, 0.7136815190315247], [3.924753189086914, -2.1634793281555176, -1.1359118223190308, -3.658731698989868, 2.755488157272339, 0.8052082657814026, 2.0182900428771973, 0.581378161907196, 1.992383599281311, -1.2568399906158447, -0.5864499807357788, 1.1447362899780273, -2.9364097118377686, -1.345371961593628, 7.616512298583984, -1.723447322845459, 2.065122127532959, 1.4638034105300903, 0.8302314877510071, 0.25938674807548523, 5.923544883728027, -1.8114537000656128], [-6.248996734619141, -0.0294535830616951, 7.018907070159912, -3.0063726902008057, -0.07481072843074799, 4.837392807006836, -2.3199782371520996, -4.430747985839844, -0.7902738451957703, -0.35661810636520386, 2.0280964374542236, -1.1419703960418701, -0.8045740723609924, 0.3063979744911194, 2.698124408721924, -1.345914363861084, 2.663814067840576, -0.5020541548728943, -3.1034188270568848, -2.8293919563293457, 3.1217262744903564, 4.902692794799805], [-0.7140005826950073, -1.0596054792404175, -3.398451805114746, 6.387723445892334, 0.5129892826080322, -7.217730522155762, 4.817998886108398, -0.6569580435752869, -4.498047828674316, 2.7669804096221924, -6.586567401885986, 0.2704014182090759, -0.018157728016376495, 1.8066643476486206, 0.39321067929267883, -1.5274258852005005, -2.5528106689453125, -1.8271212577819824, -3.811614513397217, -4.986778736114502, -3.4487533569335938, 0.17126348614692688], [-1.7741801738739014, -3.096831798553467, -4.677448272705078, 2.2598299980163574, -0.5184134840965271, -2.479518175125122, 4.072703838348389, 0.7501071691513062, 5.597204208374023, -1.5587599277496338, 0.6062577366828918, -0.332394540309906, -0.9702240824699402, 2.5328779220581055, -0.43665802478790283, -1.5721319913864136, -0.48520350456237793, -4.897643566131592, -0.16055284440517426, -4.881332874298096, -1.917198657989502, 2.0956568717956543], [0.3334243893623352, 4.636335372924805, 0.2535456120967865, -0.902926504611969, -7.455780506134033, 0.545880913734436, 0.20155058801174164, -0.9669308662414551, 0.4911425709724426, 3.0814621448516846, 0.3171004056930542, 5.472104072570801, -1.8726221323013306, 2.305438280105591, -0.2777382731437683, -1.187210202217102, -0.8272021412849426, -0.2950330972671509, 1.051796317100525, 0.2954709529876709, -2.1965324878692627, -1.5794405937194824], [-0.9908028841018677, 4.324936866760254, 0.5301762819290161, 0.05700887367129326, -3.3824307918548584, -1.3872361183166504, -0.7248756885528564, -5.81243896484375, -0.02662220597267151, 0.8150115609169006, -0.3935666084289551, -6.196891784667969, -3.125601053237915, -0.5124551057815552, -0.4484880864620209, -2.350064754486084, -1.0141850709915161, -2.4878854751586914, 0.5756915211677551, 0.5389847159385681, -0.9514623880386353, -1.972224473953247], [0.026128141209483147, -0.02017305977642536, 0.0152510367333889, 0.039357393980026245, -0.03974508121609688, 0.0004213978536427021, 0.0005155187100172043, -0.04750661551952362, -0.013748683966696262, 0.0493619479238987, 0.0283010583370924, 0.07871560007333755, 0.0013922739308327436, 0.009024513885378838, -0.04029031842947006, 0.03388803079724312, -0.035412296652793884, -0.023012865334749222, -0.058428213000297546, -0.03163279592990875, 0.030818792060017586, -0.04456546902656555], [0.013933531008660793, -0.07092010229825974, 0.003085840493440628, 0.019971977919340134, -0.08517293632030487, 0.017106754705309868, 0.08065308630466461, -0.052885767072439194, -0.01636318489909172, 0.006456445902585983, -0.05269743502140045, 0.02156411111354828, 0.032440442591905594, 0.11358312517404556, -0.0023436967749148607, 0.035699233412742615, -0.018227500841021538, -0.0287497378885746, -0.05752375349402428, -0.013745647855103016, -0.11833453923463821, -0.00961542408913374], [-0.002553327474743128, -0.022853747010231018, -0.006250731647014618, -0.09718208760023117, -0.08631434291601181, -0.007867030799388885, 0.017192170023918152, -0.027596306055784225, -0.0446300208568573, -0.06382270902395248, 0.004837548825889826, 0.02039957046508789, 0.014576234854757786, -0.0073768943548202515, -0.020834915339946747, 0.04475128650665283, -0.060939688235521317, 0.01615893840789795, 0.07194626331329346, -0.017898764461278915, -0.05217587575316429, 0.028579404577612877], [0.01726341061294079, -0.004159978590905666, -0.0362241305410862, 0.0017190850339829922, 0.015006039291620255, 0.03685052692890167, -0.05682794749736786, 0.010861009359359741, 0.06788304448127747, -0.03301934152841568, -0.0169521514326334, -0.06350988149642944, -0.03310142457485199, 0.02834688499569893, 0.00589941767975688, 0.04444646090269089, 0.052577462047338486, 0.0028395336121320724, -0.017091723158955574, 0.01490508858114481, -0.01377986278384924, -0.06303614377975464], [-0.011403711512684822, 0.0061143795028328896, -0.0036858804523944855, -0.0016692198114469647, -0.0753776803612709, -0.017717551440000534, 0.07055866718292236, -0.05675290897488594, -0.07658363878726959, 0.06355758011341095, 0.021231064572930336, 0.03745784983038902, -0.0018063171301037073, -0.02797916904091835, -0.040444448590278625, -0.0749117061495781, -0.02043960988521576, -0.048044562339782715, -0.01426397543400526, -0.019601132720708847, -0.04223054647445679, 0.05798020958900452]], "@module": "numpy", "@class": "array"}, {"dtype": "float32", "data": [-2.6089234352111816, -3.9485583305358887, -2.304272413253784, -9.346010208129883, -8.661213874816895, -2.847088098526001, -5.138930320739746, -2.741621971130371, -5.3680596351623535, -10.034296035766602, -0.6530673503875732, -8.161276817321777, -4.786492347717285, -3.670944929122925, -3.581672191619873, 1.6300021409988403, -0.1639603227376938, 1.9200596809387207, 0.8802485466003418, -5.636375904083252, -2.370830774307251, -10.975606918334961], "@module": "numpy", "@class": "array"}, {"dtype": "float32", "data": [[0.03533133119344711, -1.4001277685165405, -0.013235047459602356, 0.17128680646419525, -0.049685340374708176, -0.07185131311416626, 0.01021359022706747, 0.08136977255344391], [-0.09371156990528107, -0.6550250053405762, 0.10206955671310425, -0.06509783118963242, 0.10534794628620148, -0.04336802288889885, 0.02768690139055252, -0.06470849364995956], [-0.06215116009116173, -1.4497206211090088, -0.15144659578800201, 0.016488205641508102, -0.06798066943883896, -0.07439401745796204, -0.07342375069856644, -0.07309577614068985], [-0.14281012117862701, 1.5481135845184326, 0.23533231019973755, -0.06331032514572144, 0.1457313746213913, 0.05774422734975815, -0.1494216024875641, -0.006395690143108368], [0.1497214287519455, 1.1745562553405762, -0.08255922794342041, -0.07056967914104462, 0.04771577566862106, -0.03340328112244606, -0.13277247548103333, -0.041485484689474106], [-0.07158692926168442, 1.251710295677185, -0.01900004781782627, -0.19500912725925446, 0.00031039904570207, -0.08669913560152054, -0.051435165107250214, 0.006689978297799826], [-0.06438600271940231, -1.2580461502075195, -0.031066639348864555, -0.03856416046619415, -0.03290529549121857, -0.008395425975322723, -0.127574622631073, 0.10705655813217163], [0.08661393821239471, 0.8161981701850891, -0.05981013551354408, 0.17133046686649323, 0.021917641162872314, 0.08554302155971527, 0.02600850723683834, 0.11789458245038986], [-0.05473214387893677, 1.386191487312317, 0.0016409937525168061, -0.028609933331608772, 0.02385798655450344, 0.1488933265209198, 0.023064428940415382, 0.058061979711055756], [0.062281254678964615, -1.6768943071365356, 0.1738722026348114, 0.20579460263252258, -0.04524809867143631, -0.0010078356135636568, 0.07822524011135101, 0.10816382616758347], [0.017885303124785423, 1.405975341796875, 0.0035035060718655586, -0.004462497308850288, 0.017490018159151077, -0.03815385326743126, -0.04974082484841347, -0.0388493537902832], [0.11292499303817749, 0.7843864560127258, 0.03561965003609657, -0.04594271257519722, -0.10811478644609451, -0.06939595937728882, -0.03829348459839821, -0.09959816932678223], [0.056801687926054, -0.6428574919700623, -0.012302749790251255, 0.04104389250278473, 0.040334269404411316, 0.12221583724021912, 0.038752682507038116, 0.04781732335686684], [-0.0305121298879385, -0.6881446838378906, -0.09606508165597916, 0.0864928662776947, -0.03224930167198181, 0.1055760458111763, 0.06797423213720322, 0.08853725343942642], [-0.031291209161281586, 1.404666543006897, 0.02187405712902546, -0.023243259638547897, 0.021099084988236427, -0.1193491742014885, 0.03713162615895271, -0.12553489208221436], [0.08038182556629181, -0.4819909930229187, -0.024927612394094467, 0.03696974366903305, -0.020857498049736023, 0.069814532995224, 0.013185997493565083, 0.07133783400058746], [-0.03267066180706024, -1.2971148490905762, 0.0025904225185513496, -0.026938553899526596, -0.048425208777189255, 0.013598562218248844, -0.05101734399795532, 0.04598279669880867], [0.03348301351070404, -0.6703386902809143, 0.03357158228754997, 0.016504494473338127, -0.049744781106710434, -0.037877410650253296, 0.014761475846171379, 0.1008395180106163], [-0.09082575887441635, 0.805503785610199, 0.04213292896747589, 0.013105073943734169, 0.062438398599624634, 0.04287801310420036, 0.04060046374797821, -0.06645460426807404], [0.09277751296758652, 1.3120797872543335, -0.07424670457839966, 0.2277068793773651, 0.0272451750934124, 0.17504359781742096, 0.11430205404758453, 0.05598825216293335], [0.09329904615879059, -0.8787984251976013, 0.003277021925896406, -0.02861858531832695, -0.018475476652383804, 0.04089127480983734, -0.02039659395813942, 0.020236510783433914], [0.0921962559223175, -1.9497897624969482, 0.18529658019542694, -0.06963340938091278, 0.08255157619714737, -0.18642106652259827, 0.13404402136802673, -0.19482749700546265]], "@module": "numpy", "@class": "array"}, {"dtype": "float32", "data": [0.002826499519869685, -1.032305359840393, -0.06635969877243042, -0.10332166403532028, 0.0863196849822998, 0.16387471556663513, 0.047894008457660675, -0.011049644090235233], "@module": "numpy", "@class": "array"}, {"dtype": "float32", "data": [[-0.0041745612397789955], [0.1678345948457718], [-0.0029284802731126547], [0.00788445770740509], [-0.011657452210783958], [0.01092382613569498], [-0.02115054801106453], [0.021184828132390976]], "@module": "numpy", "@class": "array"}, {"dtype": "float32", "data": [-0.9520655274391174], "@module": "numpy", "@class": "array"}], "parameters": "{\"keras_version\": \"2.0.6\", \"backend\": \"tensorflow\", \"class_name\": \"Sequential\", \"config\": [{\"class_name\": \"Dense\", \"config\": {\"trainable\": true, \"batch_input_shape\": [null, 13], \"name\": \"dense_25\", \"activity_regularizer\": null, \"use_bias\": true, \"bias_constraint\": null, \"kernel_initializer\": {\"class_name\": \"VarianceScaling\", \"config\": {\"scale\": 1.0, \"distribution\": \"uniform\", \"mode\": \"fan_avg\", \"seed\": null}}, \"activation\": \"relu\", \"kernel_constraint\": null, \"units\": 22, \"dtype\": \"float32\", \"kernel_regularizer\": null, \"bias_regularizer\": null, \"bias_initializer\": {\"class_name\": \"Zeros\", \"config\": {}}}}, {\"class_name\": \"Dense\", \"config\": {\"trainable\": true, \"activity_regularizer\": null, \"name\": \"dense_26\", \"use_bias\": true, \"bias_constraint\": null, \"kernel_initializer\": {\"class_name\": \"VarianceScaling\", \"config\": {\"scale\": 1.0, \"distribution\": \"uniform\", \"mode\": \"fan_avg\", \"seed\": null}}, \"activation\": \"linear\", \"kernel_constraint\": null, \"kernel_regularizer\": null, \"units\": 8, \"bias_regularizer\": null, \"bias_initializer\": {\"class_name\": \"Zeros\", \"config\": {}}}}, {\"class_name\": \"Dense\", \"config\": {\"trainable\": true, \"activity_regularizer\": null, \"name\": \"dense_27\", \"use_bias\": true, \"bias_constraint\": null, \"kernel_initializer\": {\"class_name\": \"VarianceScaling\", \"config\": {\"scale\": 1.0, \"distribution\": \"uniform\", \"mode\": \"fan_avg\", \"seed\": null}}, \"activation\": \"linear\", \"kernel_constraint\": null, \"kernel_regularizer\": null, \"units\": 1, \"bias_regularizer\": null, \"bias_initializer\": {\"class_name\": \"Zeros\", \"config\": {}}}}]}"}, "scaler": "{\"mod\": \"sklearn.preprocessing.data\", \"attr\": {\"with_mean\": true, \"copy\": true, \"with_std\": true, \"n_samples_seen_\": 14760, \"scale_\": {\"py/numpy.ndarray\": {\"dtype\": \"float64\", \"values\": [0.08882528247946084, 0.19296002612852278, 0.08934154893525631, 0.19239534381691512, 0.16904690668927672, 0.30542582108136457, 0.1305020352623447, 0.33039566958884004, 0.3142696805273602, 0.49690399499992444, 0.49690399499995963, 0.49690399499995636, 0.5]}}, \"mean_\": {\"py/numpy.ndarray\": {\"dtype\": \"float64\", \"values\": [0.6987743902439711, 1.7981951219514132, 0.6949085365854332, 1.798085365853851, 1.1210743902438631, 1.230658536585383, 0.9050414634146827, 1.4952073170732372, 0.1111111111111111, 0.4444444444444444, 0.4444444444444444, 0.4444444444444444, 0.5]}}, \"var_\": {\"py/numpy.ndarray\": {\"dtype\": \"float64\", \"values\": [0.007889930807556013, 0.03723357168352019, 0.007981912366150798, 0.037015968322428976, 0.02857685666121303, 0.09328493218322573, 0.017030781207614254, 0.10916129848305797, 0.09876543209876903, 0.24691358024688492, 0.24691358024691992, 0.24691358024691668, 0.25]}}}, \"name\": \"StandardScaler\"}"}, "ext_a": {"model": {"weights": [{"dtype": "float32", "data": [[3.920182704925537, 5.090857028961182, 1.5596551895141602, -3.9537696838378906, 1.9529274702072144, 0.7583662271499634, -4.201751232147217, -0.06749424338340759, -1.2461602687835693, -0.041747502982616425, -1.1388113498687744, -1.051945686340332, -0.5212392807006836, 0.6216328144073486, 0.07770280539989471, -0.3938401937484741, 1.661830186843872, 4.523625373840332, 3.943164587020874, -0.12268346548080444, 0.9395543932914734, 1.8602064847946167], [-1.0108593702316284, -0.4869787096977234, -0.3860724866390228, 0.6723906993865967, 0.13185152411460876, -0.030001375824213028, -0.3609244227409363, 2.614753246307373, -0.49936169385910034, 0.16932103037834167, 0.5917314291000366, -2.2238123416900635, 0.2444612979888916, 0.08731839805841446, 0.060964327305555344, 0.8025871515274048, -0.9715166091918945, -1.1604301929473877, -0.3158321976661682, -1.0396682024002075, -1.0095043182373047, 1.92008638381958], [-2.544415235519409, -3.688833236694336, -0.35820138454437256, 3.725029945373535, -1.6859415769577026, -2.598837375640869, 2.614454746246338, -0.30013808608055115, -0.2682490050792694, 0.030994219705462456, 1.1561387777328491, -0.008046630769968033, 1.5873472690582275, 0.017695486545562744, -0.15889975428581238, 0.28632935881614685, -1.7390581369400024, -3.957859992980957, -3.4519412517547607, 1.0628609657287598, -0.6987701058387756, 2.024684429168701], [1.3464725017547607, 3.056705951690674, 0.30789390206336975, -0.375344455242157, -0.9012501835823059, -0.6654859185218811, -1.6889315843582153, -1.1476550102233887, 0.17390204966068268, 0.10085266828536987, -0.6844193339347839, -0.28236740827560425, 4.115246772766113, -0.03474204242229462, -0.04666391387581825, -0.07338404655456543, -2.053623914718628, 0.27403518557548523, -3.1839847564697266, 0.12634283304214478, 0.9817334413528442, 0.051269467920064926], [0.9821957349777222, 0.05704372748732567, 1.2021254301071167, -2.141789436340332, 1.1474748849868774, -1.3036326169967651, -0.1889239102602005, -1.7658535242080688, 3.7333247661590576, -0.18883401155471802, -4.490715503692627, -4.030567169189453, -0.17407868802547455, -0.06707863509654999, 0.1798466145992279, 0.010172001086175442, 0.7833612561225891, -0.38570845127105713, 0.009494844824075699, -4.055327892303467, -0.40703460574150085, -3.9521608352661133], [1.7630364894866943, 0.7227252721786499, 1.7502073049545288, 2.1060171127319336, -0.335286945104599, -0.8306204676628113, 0.40835464000701904, -4.198569297790527, 0.8810782432556152, -0.8642961978912354, -2.606776475906372, 1.056056022644043, 0.03687436506152153, -1.7674314975738525, -6.014382362365723, -0.8689592480659485, 0.5233464241027832, -0.15226440131664276, 0.7815863490104675, 0.6582375168800354, -2.246455192565918, -0.15694667398929596], [0.0783817321062088, 0.10400490462779999, -1.6974420547485352, 0.5203014016151428, 3.1359305381774902, 2.77787709236145, -0.280369371175766, 0.386597216129303, -0.49677953124046326, 3.7483201026916504, 0.03644353896379471, -0.800668478012085, 0.5383803248405457, -1.4679827690124512, -0.15098367631435394, -4.473491668701172, -0.7242041826248169, 1.3579014539718628, -0.3011680841445923, 2.5881853103637695, -0.39499858021736145, -0.38422515988349915], [2.4336724281311035, -0.02491173706948757, 2.149578332901001, -0.3005317151546478, -2.3890798091888428, -2.218722105026245, 0.856731653213501, -0.9306806325912476, 0.31392696499824524, 4.7535200119018555, 0.22454853355884552, 0.8410248756408691, -0.19861680269241333, 2.837641954421997, 0.15766964852809906, -2.3524770736694336, 1.5711628198623657, -1.6332969665527344, -0.509519100189209, -0.7894203066825867, 4.224187850952148, 0.15474332869052887], [-0.02665211632847786, -0.006428143009543419, -0.050429005175828934, -0.030477415770292282, -0.005219167564064264, -0.05603967607021332, -0.13699528574943542, -0.01540832594037056, 0.02984030544757843, -0.014272783882915974, -0.04792730510234833, 0.004451872780919075, 0.017588898539543152, -0.008472691290080547, -0.023751884698867798, 0.008405650034546852, 0.03505183756351471, -0.030282577499747276, 0.07620000094175339, 0.015384003520011902, -0.032406724989414215, -0.02207225188612938], [-0.04835294559597969, -0.027651771903038025, 0.019480185583233833, -0.046010661870241165, 0.011665437370538712, -0.014863019809126854, 0.049786001443862915, -0.021836748346686363, -0.0028358662966638803, -0.005596444010734558, 0.006667129695415497, 0.011145595461130142, -0.047966983169317245, -0.0002069990150630474, 0.04130198806524277, -0.007729525212198496, 0.032792918384075165, -0.06442870199680328, 0.00445257592946291, 0.04241529107093811, 0.025153815746307373, 0.04334130138158798], [-0.03541276976466179, 0.00187340856064111, 0.06986293941736221, 0.0005339775234460831, -0.008475719951093197, -0.010559434071183205, -0.051466964185237885, -0.06725409626960754, -0.009390884079039097, -0.003982197027653456, -0.04286637902259827, -0.0013382104225456715, -0.009027871303260326, 0.02358340471982956, -0.0004695639945566654, -0.003102294635027647, -0.04144594818353653, -0.003246911568567157, 0.024580659344792366, 0.02809477411210537, 0.03975466638803482, 0.055170923471450806]], "@module": "numpy", "@class": "array"}, {"dtype": "float32", "data": [-1.7665619850158691, -0.5118952393531799, -3.0415236949920654, -0.8822736144065857, -2.558281183242798, -2.311734676361084, -3.0308806896209717, -5.666629314422607, -5.024570465087891, -3.3078694343566895, -3.5835654735565186, -1.658229947090149, -2.474273920059204, -4.79420804977417, -2.9419398307800293, -1.0615577697753906, -5.671876907348633, -3.0184385776519775, -0.34596729278564453, -1.1145951747894287, -1.5018943548202515, -1.9434436559677124], "@module": "numpy", "@class": "array"}, {"dtype": "float32", "data": [[0.03600899130105972, -0.025321289896965027, -0.020241785794496536, 0.011958856135606766, -0.8452478647232056, 0.004687308333814144, 0.07283513993024826, -0.10050375759601593], [0.03257698193192482, 0.026591116562485695, -0.021405108273029327, 0.06778667867183685, 1.8064779043197632, -0.07788237184286118, 0.04426875337958336, -0.002278846688568592], [0.16135309636592865, 0.043287720531225204, 0.21990805864334106, -0.09388339519500732, -0.5003342628479004, -0.07910124212503433, -0.02898193523287773, 0.03267420455813408], [-0.07342308014631271, -0.06038639694452286, 0.037262238562107086, -0.032277580350637436, 1.103069543838501, 0.09015990048646927, -0.06428676098585129, 0.05578237399458885], [0.10313589125871658, -0.16100157797336578, -0.06589379906654358, -0.01604352332651615, -0.8599864840507507, 0.02523805759847164, 0.0284237302839756, -0.0064790453761816025], [-0.026286061853170395, 0.14480115473270416, -0.1460297405719757, 0.09977178275585175, 0.8769336938858032, -0.1122763380408287, 0.09945421665906906, -0.08778548985719681], [0.07580030709505081, -0.006595057435333729, 0.07090503722429276, 0.08183739334344864, -1.0019426345825195, -0.013224750757217407, -0.04140103608369827, 0.0914297103881836], [0.08687806129455566, -0.06491278856992722, 0.05005272105336189, 0.07725503295660019, -1.9367423057556152, 0.0827190950512886, 0.26028087735176086, -0.06769401580095291], [-0.021196935325860977, 0.12054761499166489, -0.035997193306684494, 0.08797053247690201, 2.1350841522216797, 0.003885152516886592, 0.0849568322300911, -0.1018570065498352], [0.0014150839997455478, 0.03908976912498474, 0.017110206186771393, -0.07754126191139221, 2.0852057933807373, 0.03482822701334953, -0.006710054352879524, 0.048764877021312714], [-0.07418269664049149, 0.05132448300719261, 0.0734744742512703, 0.053650353103876114, -1.3741965293884277, 0.08748380839824677, 0.03703856095671654, -0.0877213180065155], [0.05520942434668541, -0.06258002668619156, 0.011219678446650505, -0.00888365600258112, 0.7904819846153259, 0.010948077775537968, -0.019433261826634407, -0.029137540608644485], [0.05108078941702843, -0.019983388483524323, 0.07560519129037857, -0.09200695902109146, -0.9945746660232544, -0.030035927891731262, -0.001976881641894579, -0.03644536808133125], [-0.21454797685146332, -0.05327963829040527, 0.04885190352797508, 0.01639014109969139, -1.5241838693618774, 0.11633191257715225, -0.12122969329357147, 0.18932171165943146], [0.0954160988330841, -0.12641890347003937, -0.007003109436482191, -0.02929459698498249, -1.9134835004806519, -0.03452546149492264, -0.049951668828725815, -0.03779768571257591], [0.10265123844146729, 0.040772657841444016, -0.06244507059454918, -0.06920662522315979, 0.8701037168502808, -0.048730093985795975, 0.04177578538656235, -0.057766638696193695], [-0.0946529358625412, 0.13825802505016327, 0.1944705843925476, 0.2396988421678543, -1.3045141696929932, 0.025242958217859268, -0.005154777318239212, -0.025888456031680107], [-0.24900776147842407, -0.061826106160879135, 0.1948089599609375, 0.035929497331380844, -1.5169148445129395, 0.12133168429136276, -0.28278306126594543, 0.17765508592128754], [-0.04053335264325142, -0.028879670426249504, -0.10826318711042404, 0.020044546574354172, 1.0683478116989136, 0.02050498127937317, -0.023319857195019722, 0.011532210744917393], [0.032688286155462265, 0.06325127929449081, 0.013657872565090656, 0.019597871229052544, 0.8159406781196594, -0.11149035394191742, -0.04940975829958916, 0.007861553691327572], [0.013120886869728565, 0.023409254848957062, -0.0632053017616272, -0.04665384441614151, -1.1063884496688843, 0.015798479318618774, 0.047022975981235504, -0.08584059774875641], [-0.05227184295654297, -0.0354698970913887, 0.09281033277511597, -0.03195267543196678, 0.735571026802063, 0.06900839507579803, -0.005314406007528305, 0.06679510325193405]], "@module": "numpy", "@class": "array"}, {"dtype": "float32", "data": [-0.11428207904100418, 0.022989876568317413, 0.15483874082565308, -0.06254228204488754, -2.0202548503875732, 0.07389508932828903, 0.03535010293126106, 0.05399923399090767], "@module": "numpy", "@class": "array"}, {"dtype": "float32", "data": [[-0.011938776820898056], [0.012982487678527832], [-0.007015571929514408], [0.03459106385707855], [0.2546916604042053], [-0.014288453385233879], [-0.0024271050933748484], [0.010153001174330711]], "@module": "numpy", "@class": "array"}, {"dtype": "float32", "data": [-1.5847795009613037], "@module": "numpy", "@class": "array"}], "parameters": "{\"keras_version\": \"2.0.6\", \"backend\": \"tensorflow\", \"class_name\": \"Sequential\", \"config\": [{\"class_name\": \"Dense\", \"config\": {\"trainable\": true, \"batch_input_shape\": [null, 11], \"name\": \"dense_70\", \"activity_regularizer\": null, \"use_bias\": true, \"bias_constraint\": null, \"kernel_initializer\": {\"class_name\": \"VarianceScaling\", \"config\": {\"scale\": 1.0, \"distribution\": \"uniform\", \"mode\": \"fan_avg\", \"seed\": null}}, \"activation\": \"relu\", \"kernel_constraint\": null, \"units\": 22, \"dtype\": \"float32\", \"kernel_regularizer\": null, \"bias_regularizer\": null, \"bias_initializer\": {\"class_name\": \"Zeros\", \"config\": {}}}}, {\"class_name\": \"Dense\", \"config\": {\"trainable\": true, \"activity_regularizer\": null, \"name\": \"dense_71\", \"use_bias\": true, \"bias_constraint\": null, \"kernel_initializer\": {\"class_name\": \"VarianceScaling\", \"config\": {\"scale\": 1.0, \"distribution\": \"uniform\", \"mode\": \"fan_avg\", \"seed\": null}}, \"activation\": \"linear\", \"kernel_constraint\": null, \"kernel_regularizer\": null, \"units\": 8, \"bias_regularizer\": null, \"bias_initializer\": {\"class_name\": \"Zeros\", \"config\": {}}}}, {\"class_name\": \"Dense\", \"config\": {\"trainable\": true, \"activity_regularizer\": null, \"name\": \"dense_72\", \"use_bias\": true, \"bias_constraint\": null, \"kernel_initializer\": {\"class_name\": \"VarianceScaling\", \"config\": {\"scale\": 1.0, \"distribution\": \"uniform\", \"mode\": \"fan_avg\", \"seed\": null}}, \"activation\": \"linear\", \"kernel_constraint\": null, \"kernel_regularizer\": null, \"units\": 1, \"bias_regularizer\": null, \"bias_initializer\": {\"class_name\": \"Zeros\", \"config\": {}}}}]}"}, "scaler": "{\"mod\": \"sklearn.preprocessing.data\", \"attr\": {\"with_mean\": true, \"copy\": true, \"with_std\": true, \"n_samples_seen_\": 6433, \"scale_\": {\"py/numpy.ndarray\": {\"dtype\": \"float64\", \"values\": [0.13561062098003887, 0.349859477667536, 0.1212871926095131, 0.3232800333731762, 0.1615636110436691, 0.30012558137836565, 0.09005468701883557, 0.19220653872652294, 0.49487165930536475, 0.4948716593053789, 0.49487165930537785]}}, \"mean_\": {\"py/numpy.ndarray\": {\"dtype\": \"float64\", \"values\": [0.8898563656148399, 1.4992056583242646, 0.9039118607182152, 1.5077801958650694, 1.104513601741022, 1.2353536452666123, 0.6917301414581447, 1.7959521218716126, 0.42857142857142855, 0.42857142857142855, 0.42857142857142855]}}, \"var_\": {\"py/numpy.ndarray\": {\"dtype\": \"float64\", \"values\": [0.01839024052259176, 0.12240165411380112, 0.014710583091097127, 0.10450997997776192, 0.026102800413469997, 0.09007536459770198, 0.008109846654060431, 0.036943353529230366, 0.24489795918364501, 0.244897959183659, 0.24489795918365795]}}}, \"name\": \"StandardScaler\"}"}}